Language model created by QuickLM on Tue Mar  4 01:52:11 EST 2014
Copyright (c) 1996-2010 Carnegie Mellon University and Alexander I. Rudnicky

The model is in standard ARPA format, designed by Doug Paul while he was at MITRE.

The code that was used to produce this language model is available in Open Source.
Please visit http://www.speech.cs.cmu.edu/tools/ for more information

The (fixed) discount mass is 0.5. The backoffs are computed using the ratio method.
This model based on a corpus of 48 sentences and 53 words

\data\
ngram 1=53
ngram 2=103
ngram 3=95

\1-grams:
-0.9031 </s> -0.3010
-0.9031 <s> -0.2339
-2.5843 ABORT -0.2430
-2.5843 AN -0.2999
-1.9823 ARE -0.2919
-2.2833 BACK -0.2430
-2.1072 BACKWARD -0.2430
-2.5843 CANCEL -0.2430
-1.9823 COME -0.2825
-2.5843 CONTINUE -0.2988
-2.5843 COOL -0.2430
-2.2833 DOWN -0.2430
-2.5843 FASTER -0.2430
-2.1072 FORWARD -0.2430
-2.5843 FREEZE -0.2430
-2.5843 FULL -0.2965
-1.8062 GO -0.2790
-2.5843 HALF -0.2965
-2.5843 HALT -0.2430
-2.2833 HELP -0.2417
-2.5843 HONEST -0.2999
-2.2833 HOW -0.2953
-2.2833 I -0.2988
-2.5843 KILL -0.2430
-2.5843 KNOW -0.2942
-1.8854 LEFT -0.2430
-2.5843 LIKE -0.2942
-2.5843 LOOK -0.2999
-2.5843 ME -0.2430
-1.8854 MOVE -0.2802
-2.5843 NOW -0.2430
-2.5843 OFF -0.2430
-2.5843 OLD -0.2965
-2.5843 PANIC -0.2430
-2.5843 PAUSE -0.2988
-2.5843 PERSON -0.2430
-2.5843 QUARTER -0.2965
-1.8854 RIGHT -0.2430
-2.2833 ROTATE -0.2896
-2.5843 SHUT -0.2988
-2.5843 SLOW -0.2988
-2.5843 SLOWER -0.2430
-2.5843 SMART -0.2430
-2.2833 SPEECH -0.2430
-1.9823 SPEED -0.2417
-2.2833 STOP -0.2417
-2.5843 STRAIGHT -0.2430
-2.5843 SUCH -0.2999
-2.5843 TIME -0.2430
-2.1072 TURN -0.2884
-2.5843 UP -0.2430
-2.5843 WEATHER -0.2430
-1.8062 YOU -0.2365

\2-grams:
-1.9823 <s> ABORT 0.0000
-1.9823 <s> CANCEL 0.0000
-1.3802 <s> COME 0.0000
-1.9823 <s> CONTINUE 0.0000
-1.9823 <s> FASTER 0.0000
-1.9823 <s> FREEZE 0.0000
-1.9823 <s> FULL 0.0000
-1.2041 <s> GO 0.0000
-1.9823 <s> HALF 0.0000
-1.9823 <s> HALT 0.0000
-1.6812 <s> HELP 0.0000
-1.6812 <s> HOW 0.0000
-1.6812 <s> I 0.0000
-1.9823 <s> KILL 0.0000
-1.2833 <s> MOVE 0.0000
-1.9823 <s> PANIC 0.0000
-1.9823 <s> PAUSE 0.0000
-1.9823 <s> QUARTER 0.0000
-1.6812 <s> ROTATE 0.0000
-1.9823 <s> SHUT 0.0000
-1.9823 <s> SLOW 0.0000
-1.9823 <s> SLOWER 0.0000
-1.9823 <s> SPEED -0.2430
-1.6812 <s> STOP 0.0000
-1.9823 <s> TIME 0.0000
-1.5051 <s> TURN 0.0000
-1.9823 <s> WEATHER 0.0000
-1.6812 <s> YOU -0.1761
-0.3010 ABORT </s> -0.3010
-0.3010 AN HONEST 0.0000
-0.9031 ARE SMART 0.0000
-0.9031 ARE SUCH 0.0000
-0.6021 ARE YOU -0.1761
-0.3010 BACK </s> -0.3010
-0.3010 BACKWARD </s> -0.3010
-0.3010 CANCEL </s> -0.3010
-0.9031 COME BACKWARD 0.0000
-0.9031 COME FORWARD 0.0000
-0.9031 COME LEFT 0.0000
-0.9031 COME RIGHT 0.0000
-0.3010 CONTINUE SPEECH 0.0000
-0.3010 COOL </s> -0.3010
-0.3010 DOWN </s> -0.3010
-0.3010 FASTER </s> -0.3010
-0.3010 FORWARD </s> -0.3010
-0.3010 FREEZE </s> -0.3010
-0.3010 FULL SPEED -0.0969
-1.0792 GO BACK 0.0000
-1.0792 GO BACKWARD 0.0000
-1.0792 GO FORWARD 0.0000
-1.0792 GO LEFT 0.0000
-1.0792 GO RIGHT 0.0000
-1.0792 GO STRAIGHT 0.0000
-0.3010 HALF SPEED -0.0969
-0.3010 HALT </s> -0.3010
-0.6021 HELP </s> -0.3010
-0.6021 HELP ME 0.0000
-0.3010 HONEST PERSON 0.0000
-0.6021 HOW ARE -0.1761
-0.6021 HOW OLD 0.0000
-0.6021 I KNOW 0.0000
-0.6021 I LIKE 0.0000
-0.3010 KILL </s> -0.3010
-0.3010 KNOW YOU -0.2218
-0.3010 LEFT </s> -0.3010
-0.3010 LIKE YOU -0.1761
-0.3010 LOOK COOL 0.0000
-0.3010 ME </s> -0.3010
-1.0000 MOVE BACK 0.0000
-1.0000 MOVE BACKWARD 0.0000
-1.0000 MOVE FORWARD 0.0000
-1.0000 MOVE LEFT 0.0000
-1.0000 MOVE RIGHT 0.0000
-0.3010 NOW </s> -0.3010
-0.3010 OFF </s> -0.3010
-0.3010 OLD ARE -0.1761
-0.3010 PANIC </s> -0.3010
-0.3010 PAUSE SPEECH 0.0000
-0.3010 PERSON </s> -0.3010
-0.3010 QUARTER SPEED -0.0969
-0.3010 RIGHT </s> -0.3010
-0.6021 ROTATE LEFT 0.0000
-0.6021 ROTATE RIGHT 0.0000
-0.3010 SHUT DOWN 0.0000
-0.3010 SLOW DOWN 0.0000
-0.3010 SLOWER </s> -0.3010
-0.3010 SMART </s> -0.3010
-0.3010 SPEECH </s> -0.3010
-0.4260 SPEED </s> -0.3010
-0.9031 SPEED UP 0.0000
-0.6021 STOP </s> -0.3010
-0.6021 STOP NOW 0.0000
-0.3010 STRAIGHT </s> -0.3010
-0.3010 SUCH AN 0.0000
-0.3010 TIME </s> -0.3010
-0.7782 TURN LEFT 0.0000
-0.7782 TURN OFF 0.0000
-0.7782 TURN RIGHT 0.0000
-0.3010 UP </s> -0.3010
-0.3010 WEATHER </s> -0.3010
-0.6021 YOU </s> -0.3010
-0.7782 YOU ARE -0.1761
-1.0792 YOU LOOK 0.0000

\3-grams:
-0.3010 <s> ABORT </s>
-0.3010 <s> CANCEL </s>
-0.9031 <s> COME BACKWARD
-0.9031 <s> COME FORWARD
-0.9031 <s> COME LEFT
-0.9031 <s> COME RIGHT
-0.3010 <s> CONTINUE SPEECH
-0.3010 <s> FASTER </s>
-0.3010 <s> FREEZE </s>
-0.3010 <s> FULL SPEED
-1.0792 <s> GO BACK
-1.0792 <s> GO BACKWARD
-1.0792 <s> GO FORWARD
-1.0792 <s> GO LEFT
-1.0792 <s> GO RIGHT
-1.0792 <s> GO STRAIGHT
-0.3010 <s> HALF SPEED
-0.3010 <s> HALT </s>
-0.6021 <s> HELP </s>
-0.6021 <s> HELP ME
-0.6021 <s> HOW ARE
-0.6021 <s> HOW OLD
-0.6021 <s> I KNOW
-0.6021 <s> I LIKE
-0.3010 <s> KILL </s>
-1.0000 <s> MOVE BACK
-1.0000 <s> MOVE BACKWARD
-1.0000 <s> MOVE FORWARD
-1.0000 <s> MOVE LEFT
-1.0000 <s> MOVE RIGHT
-0.3010 <s> PANIC </s>
-0.3010 <s> PAUSE SPEECH
-0.3010 <s> QUARTER SPEED
-0.6021 <s> ROTATE LEFT
-0.6021 <s> ROTATE RIGHT
-0.3010 <s> SHUT DOWN
-0.3010 <s> SLOW DOWN
-0.3010 <s> SLOWER </s>
-0.3010 <s> SPEED UP
-0.6021 <s> STOP </s>
-0.6021 <s> STOP NOW
-0.3010 <s> TIME </s>
-0.7782 <s> TURN LEFT
-0.7782 <s> TURN OFF
-0.7782 <s> TURN RIGHT
-0.3010 <s> WEATHER </s>
-0.6021 <s> YOU ARE
-0.6021 <s> YOU LOOK
-0.3010 AN HONEST PERSON
-0.3010 ARE SMART </s>
-0.3010 ARE SUCH AN
-0.3010 ARE YOU </s>
-0.3010 COME BACKWARD </s>
-0.3010 COME FORWARD </s>
-0.3010 COME LEFT </s>
-0.3010 COME RIGHT </s>
-0.3010 CONTINUE SPEECH </s>
-0.3010 FULL SPEED </s>
-0.3010 GO BACK </s>
-0.3010 GO BACKWARD </s>
-0.3010 GO FORWARD </s>
-0.3010 GO LEFT </s>
-0.3010 GO RIGHT </s>
-0.3010 GO STRAIGHT </s>
-0.3010 HALF SPEED </s>
-0.3010 HELP ME </s>
-0.3010 HONEST PERSON </s>
-0.3010 HOW ARE YOU
-0.3010 HOW OLD ARE
-0.3010 I KNOW YOU
-0.3010 I LIKE YOU
-0.3010 KNOW YOU ARE
-0.3010 LIKE YOU </s>
-0.3010 LOOK COOL </s>
-0.3010 MOVE BACK </s>
-0.3010 MOVE BACKWARD </s>
-0.3010 MOVE FORWARD </s>
-0.3010 MOVE LEFT </s>
-0.3010 MOVE RIGHT </s>
-0.3010 OLD ARE YOU
-0.3010 PAUSE SPEECH </s>
-0.3010 QUARTER SPEED </s>
-0.3010 ROTATE LEFT </s>
-0.3010 ROTATE RIGHT </s>
-0.3010 SHUT DOWN </s>
-0.3010 SLOW DOWN </s>
-0.3010 SPEED UP </s>
-0.3010 STOP NOW </s>
-0.3010 SUCH AN HONEST
-0.3010 TURN LEFT </s>
-0.3010 TURN OFF </s>
-0.3010 TURN RIGHT </s>
-0.6021 YOU ARE SMART
-0.6021 YOU ARE SUCH
-0.3010 YOU LOOK COOL

\end\
